-1.166506
-0.8786186
1.1119884
0.9911792
-15.319813
0.072092734
-1.8570504
-1.9254463
0.66479367
-0.96603405
-0.07117425
-1.8002816
1.4043413
-0.26860195
-0.36636943
-0.7761264
-1.3276811
0.4822499
0.35288057
-8.910568
1.7966778
-1.4814891
0.007686284
0.21648812
-0.46690837
0.46178398
-0.7938001
-2.2945838
-1.305765
0.47501087
0.5765077
-0.31167728
-0.58688235
1.3777484
-9.038934
-0.03163928
1.5263263
-1.0815057
0.17569427
-0.59342754
0.22163087
-1.1365366
-1.045533
-1.214488
1.7135266
1.3583058
-0.2445498
-0.73960316
-1.1136843
-0.43609583
-1.6989144
-0.45674998
-1.2482821
-1.4914025
0.12999143
-0.1342543
-0.5137196
1.0646881
0.14611623
-1.026171
0.35839114
1.350196
-0.064525515
-0.24148141
0.6532087
-0.62682945
-2.0652766
-1.3014903
-2.433894
1.3050743
-0.5255309
0.47639978
0.32813197
1.9654963
-1.1141807
0.6464065
-1.3241781
0.70621526
-0.7759823
-0.71428657
-1.2251378
-1.7339592
1.4056228
-0.035505943
-1.3285365
0.22009629
-1.16829
-0.47700065
-1.2260883
-0.85877
-2.5833921
-1.87279
-1.4390987
-0.49576578
-1.5481783
-2.3113053
-0.27017164
-1.5268427
1.0457011
-0.14174965
-0.3635477
-2.2956946
-1.925485
-1.216038
-1.5940715
1.4131701
0.5873284
-0.22286849
0.047715444
0.75274676
-1.2249913
0.85631
-0.10599044
-0.4625598
1.9560946
0.35106155
-0.881649
-0.67691785
0.26439267
-1.6498764
-1.4013081
-0.2670288
-2.9450676
-0.3610331
-0.82789063
-1.1991154
-0.62866044
-1.1208678
-2.5890832
0.6273501
-2.3886993
0.8454542
-0.16479449
-0.7063863
-0.24615137
-0.17644268
-1.6637434
0.63564646
1.2390296
0.7981715
-0.9942769
0.77677226
0.87048763
-2.4534652
0.40964165
-0.42887104
0.7459239
1.8803868
-1.3537593
1.2739202
-0.7183555
-0.26195383
-0.45401567
0.88567626
0.8050611
-2.103097
-0.95394105
-0.9962052
-1.4989741
-1.1843218
-0.11035798
-0.79767877
-1.8007332
-0.13396566
0.13053055
-1.6274309
-0.6424553
-0.8593612
-3.0967693
-0.6703663
-1.1115593
-2.4645717
-1.1198024
-1.177226
-1.5886781
-0.08494696
-0.6385335
-2.7445188
0.27721515
-2.0222487
0.37306774
-0.17013995
-0.32823163
-0.9360939
0.31234708
-0.42531604
0.9387975
-1.2358569
-2.1004243
-0.6079633
2.2961526
-0.16296947
-0.87951165
-1.804873
-1.6040112
-1.0355663
0.054994673
-2.5030124
-0.3460972
-0.8891306
-0.7666744
-1.0246968
-0.63497484
-0.34698716
-1.1356239
-1.2240821
0.4840222
-1.8130921
-0.8701185
0.09817816
-0.5387172
0.99985766
1.2144579
1.6210799
0.10746076
0.1310365
0.60164547
1.3834182
-0.7911214
-0.09131305
-1.0370888
-1.5599937
0.99363357
-0.92569035
0.14202933
2.256475
0.7124459
0.8163171
0.10572181
-0.64567614
2.9911673
-3.8307824
0.48354024
-1.5541462
-0.7662517
0.22404288
0.2777245
0.95968455
-0.026540415
0.14012659
0.61325336
0.22441566
1.5191212
0.027495421
0.97659457
-0.15790935
-0.03004909
-2.1614377
1.1499192
-0.36359936
0.4306774
1.6410341
-0.40243512
-0.17239438
0.862361
-1.3533686
-2.4070637
1.4819142
-0.2287453
-0.5116467
0.020009344
-0.57160234
-0.493086
-2.3571253
-1.444246
-1.2316037
-2.4207957
0.4867059
-1.4869022
-1.0489987
0.8553015
-0.32580963
-0.60014576
-0.388756
1.4468734
1.1332623
-1.3004853
0.76153755
0.6542754
-0.61433715
0.97784805
0.11423446
0.845528
-0.11585707
0.35525727
0.8701269
-0.017689187
-0.052920084
-0.75884134
0.8617293
-0.041228503
0.026396297
-0.1746327
0.7593141
-0.5230036
-0.82845044
-0.8466704
0.9623896
0.017448448
-0.24948359
0.23627679
-0.19324483
1.1590283
1.3180054
0.9640759
-0.7819136
0.80172676
-0.2065717
0.3591114
1.1526983
-0.58041453
-0.16959658
-0.5127245
0.391834
0.8724732
0.5064922
0.123648256
0.0069002146
-0.47640136
0.028255759
0.21217622
0.95325994
1.5132084
0.105971254
0.100136064
1.0185261
1.0781902
0.5627251
-1.5480237
-0.063819066
