-0.402754
-0.2728391
0.76634395
-1.0108639
-1.413461
-0.92828107
0.8071341
-2.5661685
-1.10761
0.031980533
3.028225
2.2221534
-3.3803658
-1.2741954
-0.8906568
-1.9024245
2.8110745
-0.2109574
-0.93446976
0.36515874
-1.5412025
-2.0098498
-2.1030705
-0.54835474
-1.9946911
-1.1276575
-1.6140306
-1.0141617
-1.9757146
-1.7373818
-0.8934582
-1.9491768
-1.0747472
-0.5797659
-0.073940195
-1.2845763
-0.11617976
-0.53297186
-1.4004787
-0.5397393
-0.32825607
-0.5844387
-3.241696
0.19492698
-1.1728644
-1.0890741
0.10146849
-0.1402297
0.09409033
1.1560327
-0.6706067
-0.701999
0.718163
-1.4074849
-2.1229358
-0.10412903
0.6477351
1.5510749
-0.2931282
-0.4229302
0.24116832
2.124573
-1.083871
0.24359882
-0.5134045
-0.23977803
0.20014164
-0.5558158
-1.4116871
-0.014084438
1.1695374
-1.2024914
0.2202106
1.194993
0.2616846
-0.2666442
-0.64136165
-1.7341847
-0.1794664
-1.842138
0.07461869
0.15380855
-2.1447775
-3.318808
-2.1960144
-1.7753066
-2.2011595
-4.141534
-0.12689754
-0.6221791
-1.5253503
-1.4057106
0.51304483
-0.80177397
-0.4535644
-1.8189714
-0.39782846
0.35063204
0.6281687
-0.8644252
-2.0145884
0.73801476
1.0804765
0.6906446
-2.1429448
1.421106
-0.51186717
-0.99542147
-2.2314286
0.08419946
-2.0143926
-1.3236699
-1.060409
-0.9618405
0.1527532
-0.36674592
-0.38810843
-0.06650725
-0.75191855
-1.0043783
0.13360964
0.3110834
1.2421391
0.4501317
0.36268875
0.2134912
-0.09695343
-0.5683359
0.4509868
-0.123284996
0.38986754
1.5438994
-0.3555123
0.22309104
0.2391472
-0.12268311
-0.8118486
0.51772094
-0.09100886
-0.94837505
-0.7557178
-0.4140393
-1.541286
-0.98633015
0.57035774
-1.1716259
-0.34638947
0.4810346
0.39940217
-0.4904327
0.2821778
0.21181835
0.8073493
-0.9557607
1.2832294
0.67605394
0.2894875
-0.5880551
0.9446612
0.31979665
