-0.41356072
-0.45548907
0.14567846
1.4890658
-0.8605855
1.2384754
0.14550169
1.9160587
-0.47268447
1.0970997
-0.0619583
0.5966581
-1.0084972
1.2027898
-1.0708177
0.4017949
0.60799277
-2.280521
0.9579738
0.19919337
0.6788894
0.2885374
-0.5711283
-0.42523184
0.7125527
0.31510895
0.15494344
-0.30399686
-0.6408253
-1.8732322
-0.6635656
0.4455177
1.1011343
-0.36657807
-2.1998873
-1.9114461
2.5325475
-1.1921599
1.263223
-0.04211236
-1.0075701
1.0928814
-0.21647272
-0.9027271
-1.2565227
-0.7727621
0.07739927
3.132855
0.9948371
-0.5743333
-0.06922078
0.04716208
1.1325369
1.6461122
-0.6871164
0.77763385
1.8053399
-0.084522486
0.3159021
0.51368815
-0.71063095
1.7801486
0.14076415
-0.35629913
-0.42844206
1.0550996
1.9620894
0.93942684
-1.568072
-0.5756059
0.4851811
-0.25685728
-0.1970157
0.013234854
-1.2808578
-1.0263629
1.3858244
-1.7192547
0.6767124
0.54483587
-1.3404279
0.7274607
0.81494844
0.007381311
0.2664524
0.044668138
1.5605474
-0.31268713
0.45288193
0.46976194
0.22494763
0.4028309
-0.21648544
0.92040217
0.23257276
1.1349717
-0.42601106
0.22009806
-1.5981185
-0.5368668
1.0991124
0.62924206
-1.1653268
-0.5695865
-0.29582408
-1.2041138
-0.6015348
-0.9959535
-2.826526
0.5454884
-0.9934459
-0.0072907787
1.7357212
0.23101822
0.83571404
-0.25373966
-1.3637794
0.019743476
-0.904531
1.6943464
0.3226449
0.10388367
0.85160995
0.6100181
0.6665597
2.575516
-1.8051059
-0.6961365
-0.2311379
1.0109549
0.6667917
-0.48826566
-0.46027866
1.0402933
1.4439123
0.04822588
-1.4574618
-1.0657961
0.7380655
0.0095294835
-1.6279484
-3.2064803
-0.7484303
0.4501787
-0.6662822
0.3724934
-1.6851431
0.87953603
-0.32899162
-1.5619813
-0.13125001
-0.9700236
-1.8235363
-2.1864667
0.98927915
-0.58614075
2.6870005
0.1429701
1.3335243
-0.18579893
